digraph Tree {
node [shape=box, style="filled, rounded", color="black", fontname=helvetica] ;
edge [fontname=helvetica] ;
0 [label="X[5] <= 0.34\ngini = 0.33\nsamples = 5043\nvalue = [6362, 1638]\nclass = No_Churn", fillcolor="#eca16c"] ;
1 [label="X[7] <= 0.46\ngini = 0.2\nsamples = 3563\nvalue = [5013, 653]\nclass = No_Churn", fillcolor="#e89153"] ;
0 -> 1 [labeldistance=2.5, labelangle=45, headlabel="True"] ;
2 [label="X[3] <= -2.52\ngini = 0.16\nsamples = 2031\nvalue = [2928, 275]\nclass = No_Churn", fillcolor="#e78d4c"] ;
1 -> 2 ;
3 [label="gini = 0.0\nsamples = 3\nvalue = [0, 3]\nclass = Churn", fillcolor="#399de5"] ;
2 -> 3 ;
4 [label="X[5] <= -0.42\ngini = 0.16\nsamples = 2028\nvalue = [2928, 272]\nclass = No_Churn", fillcolor="#e78d4b"] ;
2 -> 4 ;
5 [label="X[11] <= 1.08\ngini = 0.09\nsamples = 1039\nvalue = [1572, 76]\nclass = No_Churn", fillcolor="#e68743"] ;
4 -> 5 ;
6 [label="X[6] <= 0.87\ngini = 0.06\nsamples = 840\nvalue = [1272, 44]\nclass = No_Churn", fillcolor="#e68540"] ;
5 -> 6 ;
7 [label="X[8] <= 1.67\ngini = 0.08\nsamples = 627\nvalue = [938, 41]\nclass = No_Churn", fillcolor="#e68742"] ;
6 -> 7 ;
8 [label="X[8] <= -0.05\ngini = 0.07\nsamples = 618\nvalue = [927, 35]\nclass = No_Churn", fillcolor="#e68640"] ;
7 -> 8 ;
9 [label="gini = 0.17\nsamples = 214\nvalue = [289, 31]\nclass = No_Churn", fillcolor="#e88f4e"] ;
8 -> 9 ;
10 [label="gini = 0.01\nsamples = 404\nvalue = [638, 4]\nclass = No_Churn", fillcolor="#e5823a"] ;
8 -> 10 ;
11 [label="X[3] <= 1.2\ngini = 0.46\nsamples = 9\nvalue = [11, 6]\nclass = No_Churn", fillcolor="#f3c6a5"] ;
7 -> 11 ;
12 [label="gini = 0.39\nsamples = 8\nvalue = [11, 4]\nclass = No_Churn", fillcolor="#eeaf81"] ;
11 -> 12 ;
13 [label="gini = 0.0\nsamples = 1\nvalue = [0, 2]\nclass = Churn", fillcolor="#399de5"] ;
11 -> 13 ;
14 [label="X[8] <= 1.67\ngini = 0.02\nsamples = 213\nvalue = [334, 3]\nclass = No_Churn", fillcolor="#e5823b"] ;
6 -> 14 ;
15 [label="X[8] <= -0.05\ngini = 0.01\nsamples = 211\nvalue = [333, 2]\nclass = No_Churn", fillcolor="#e5823a"] ;
14 -> 15 ;
16 [label="gini = 0.04\nsamples = 66\nvalue = [93, 2]\nclass = No_Churn", fillcolor="#e6843d"] ;
15 -> 16 ;
17 [label="gini = 0.0\nsamples = 145\nvalue = [240, 0]\nclass = No_Churn", fillcolor="#e58139"] ;
15 -> 17 ;
18 [label="X[5] <= -1.04\ngini = 0.5\nsamples = 2\nvalue = [1, 1]\nclass = No_Churn", fillcolor="#ffffff"] ;
14 -> 18 ;
19 [label="gini = 0.0\nsamples = 1\nvalue = [0, 1]\nclass = Churn", fillcolor="#399de5"] ;
18 -> 19 ;
20 [label="gini = 0.0\nsamples = 1\nvalue = [1, 0]\nclass = No_Churn", fillcolor="#e58139"] ;
18 -> 20 ;
21 [label="X[3] <= -1.77\ngini = 0.17\nsamples = 199\nvalue = [300, 32]\nclass = No_Churn", fillcolor="#e88e4e"] ;
5 -> 21 ;
22 [label="X[9] <= -0.45\ngini = 0.5\nsamples = 7\nvalue = [6, 6]\nclass = No_Churn", fillcolor="#ffffff"] ;
21 -> 22 ;
23 [label="X[2] <= 0.58\ngini = 0.38\nsamples = 4\nvalue = [2, 6]\nclass = Churn", fillcolor="#7bbeee"] ;
22 -> 23 ;
24 [label="gini = 0.0\nsamples = 3\nvalue = [0, 6]\nclass = Churn", fillcolor="#399de5"] ;
23 -> 24 ;
25 [label="gini = 0.0\nsamples = 1\nvalue = [2, 0]\nclass = No_Churn", fillcolor="#e58139"] ;
23 -> 25 ;
26 [label="gini = 0.0\nsamples = 3\nvalue = [4, 0]\nclass = No_Churn", fillcolor="#e58139"] ;
22 -> 26 ;
27 [label="X[7] <= 0.41\ngini = 0.15\nsamples = 192\nvalue = [294, 26]\nclass = No_Churn", fillcolor="#e78c4b"] ;
21 -> 27 ;
28 [label="X[6] <= -0.87\ngini = 0.13\nsamples = 183\nvalue = [283, 22]\nclass = No_Churn", fillcolor="#e78b48"] ;
27 -> 28 ;
29 [label="gini = 0.23\nsamples = 46\nvalue = [77, 12]\nclass = No_Churn", fillcolor="#e99558"] ;
28 -> 29 ;
30 [label="gini = 0.09\nsamples = 137\nvalue = [206, 10]\nclass = No_Churn", fillcolor="#e68743"] ;
28 -> 30 ;
31 [label="X[9] <= -0.45\ngini = 0.39\nsamples = 9\nvalue = [11, 4]\nclass = No_Churn", fillcolor="#eeaf81"] ;
27 -> 31 ;
32 [label="gini = 0.0\nsamples = 2\nvalue = [0, 4]\nclass = Churn", fillcolor="#399de5"] ;
31 -> 32 ;
33 [label="gini = 0.0\nsamples = 7\nvalue = [11, 0]\nclass = No_Churn", fillcolor="#e58139"] ;
31 -> 33 ;
34 [label="X[11] <= 1.6\ngini = 0.22\nsamples = 989\nvalue = [1356, 196]\nclass = No_Churn", fillcolor="#e99356"] ;
4 -> 34 ;
35 [label="X[8] <= 1.67\ngini = 0.23\nsamples = 947\nvalue = [1288, 194]\nclass = No_Churn", fillcolor="#e99457"] ;
34 -> 35 ;
36 [label="X[10] <= -0.03\ngini = 0.2\nsamples = 921\nvalue = [1277, 166]\nclass = No_Churn", fillcolor="#e89153"] ;
35 -> 36 ;
37 [label="X[8] <= -0.05\ngini = 0.22\nsamples = 476\nvalue = [654, 94]\nclass = No_Churn", fillcolor="#e99355"] ;
36 -> 37 ;
38 [label="gini = 0.37\nsamples = 180\nvalue = [214, 69]\nclass = No_Churn", fillcolor="#edaa79"] ;
37 -> 38 ;
39 [label="gini = 0.1\nsamples = 296\nvalue = [440, 25]\nclass = No_Churn", fillcolor="#e68844"] ;
37 -> 39 ;
40 [label="X[8] <= -0.05\ngini = 0.19\nsamples = 445\nvalue = [623, 72]\nclass = No_Churn", fillcolor="#e89050"] ;
36 -> 40 ;
41 [label="gini = 0.36\nsamples = 174\nvalue = [216, 66]\nclass = No_Churn", fillcolor="#eda876"] ;
40 -> 41 ;
42 [label="gini = 0.03\nsamples = 271\nvalue = [407, 6]\nclass = No_Churn", fillcolor="#e5833c"] ;
40 -> 42 ;
43 [label="X[5] <= -0.13\ngini = 0.4\nsamples = 26\nvalue = [11, 28]\nclass = Churn", fillcolor="#87c4ef"] ;
35 -> 43 ;
44 [label="X[3] <= -0.4\ngini = 0.5\nsamples = 8\nvalue = [6, 6]\nclass = No_Churn", fillcolor="#ffffff"] ;
43 -> 44 ;
45 [label="gini = 0.0\nsamples = 2\nvalue = [3, 0]\nclass = No_Churn", fillcolor="#e58139"] ;
44 -> 45 ;
46 [label="gini = 0.44\nsamples = 6\nvalue = [3, 6]\nclass = Churn", fillcolor="#9ccef2"] ;
44 -> 46 ;
47 [label="X[2] <= 0.58\ngini = 0.3\nsamples = 18\nvalue = [5, 22]\nclass = Churn", fillcolor="#66b3eb"] ;
43 -> 47 ;
48 [label="gini = 0.4\nsamples = 14\nvalue = [5, 13]\nclass = Churn", fillcolor="#85c3ef"] ;
47 -> 48 ;
49 [label="gini = 0.0\nsamples = 4\nvalue = [0, 9]\nclass = Churn", fillcolor="#399de5"] ;
47 -> 49 ;
50 [label="X[8] <= -0.05\ngini = 0.06\nsamples = 42\nvalue = [68, 2]\nclass = No_Churn", fillcolor="#e6853f"] ;
34 -> 50 ;
51 [label="X[11] <= 1.63\ngini = 0.17\nsamples = 13\nvalue = [19, 2]\nclass = No_Churn", fillcolor="#e88e4e"] ;
50 -> 51 ;
52 [label="X[4] <= -0.09\ngini = 0.5\nsamples = 2\nvalue = [1, 1]\nclass = No_Churn", fillcolor="#ffffff"] ;
51 -> 52 ;
53 [label="gini = 0.0\nsamples = 1\nvalue = [0, 1]\nclass = Churn", fillcolor="#399de5"] ;
52 -> 53 ;
54 [label="gini = 0.0\nsamples = 1\nvalue = [1, 0]\nclass = No_Churn", fillcolor="#e58139"] ;
52 -> 54 ;
55 [label="X[0] <= 0.0\ngini = 0.1\nsamples = 11\nvalue = [18, 1]\nclass = No_Churn", fillcolor="#e68844"] ;
51 -> 55 ;
56 [label="gini = 0.0\nsamples = 8\nvalue = [15, 0]\nclass = No_Churn", fillcolor="#e58139"] ;
55 -> 56 ;
57 [label="gini = 0.38\nsamples = 3\nvalue = [3, 1]\nclass = No_Churn", fillcolor="#eeab7b"] ;
55 -> 57 ;
58 [label="gini = 0.0\nsamples = 29\nvalue = [49, 0]\nclass = No_Churn", fillcolor="#e58139"] ;
50 -> 58 ;
59 [label="X[4] <= -0.09\ngini = 0.26\nsamples = 1532\nvalue = [2085, 378]\nclass = No_Churn", fillcolor="#ea985d"] ;
1 -> 59 ;
60 [label="X[1] <= 0.57\ngini = 0.32\nsamples = 664\nvalue = [852, 216]\nclass = No_Churn", fillcolor="#eca16b"] ;
59 -> 60 ;
61 [label="X[7] <= 1.45\ngini = 0.27\nsamples = 397\nvalue = [532, 100]\nclass = No_Churn", fillcolor="#ea995e"] ;
60 -> 61 ;
62 [label="X[7] <= 0.84\ngini = 0.23\nsamples = 356\nvalue = [485, 74]\nclass = No_Churn", fillcolor="#e99457"] ;
61 -> 62 ;
63 [label="X[8] <= 1.67\ngini = 0.16\nsamples = 160\nvalue = [223, 22]\nclass = No_Churn", fillcolor="#e88d4d"] ;
62 -> 63 ;
64 [label="X[11] <= 0.14\ngini = 0.15\nsamples = 158\nvalue = [223, 20]\nclass = No_Churn", fillcolor="#e78c4b"] ;
63 -> 64 ;
65 [label="gini = 0.06\nsamples = 80\nvalue = [115, 4]\nclass = No_Churn", fillcolor="#e68540"] ;
64 -> 65 ;
66 [label="gini = 0.22\nsamples = 78\nvalue = [108, 16]\nclass = No_Churn", fillcolor="#e99456"] ;
64 -> 66 ;
67 [label="gini = 0.0\nsamples = 2\nvalue = [0, 2]\nclass = Churn", fillcolor="#399de5"] ;
63 -> 67 ;
68 [label="X[8] <= 1.67\ngini = 0.28\nsamples = 196\nvalue = [262, 52]\nclass = No_Churn", fillcolor="#ea9a60"] ;
62 -> 68 ;
69 [label="X[10] <= -0.03\ngini = 0.22\nsamples = 187\nvalue = [262, 38]\nclass = No_Churn", fillcolor="#e99356"] ;
68 -> 69 ;
70 [label="gini = 0.25\nsamples = 95\nvalue = [137, 23]\nclass = No_Churn", fillcolor="#e9965a"] ;
69 -> 70 ;
71 [label="gini = 0.19\nsamples = 92\nvalue = [125, 15]\nclass = No_Churn", fillcolor="#e89051"] ;
69 -> 71 ;
72 [label="gini = 0.0\nsamples = 9\nvalue = [0, 14]\nclass = Churn", fillcolor="#399de5"] ;
68 -> 72 ;
73 [label="X[7] <= 1.99\ngini = 0.46\nsamples = 41\nvalue = [47, 26]\nclass = No_Churn", fillcolor="#f3c7a7"] ;
61 -> 73 ;
74 [label="X[7] <= 1.46\ngini = 0.43\nsamples = 38\nvalue = [46, 21]\nclass = No_Churn", fillcolor="#f1bb93"] ;
73 -> 74 ;
75 [label="gini = 0.0\nsamples = 1\nvalue = [0, 3]\nclass = Churn", fillcolor="#399de5"] ;
74 -> 75 ;
76 [label="X[5] <= -0.61\ngini = 0.4\nsamples = 37\nvalue = [46, 18]\nclass = No_Churn", fillcolor="#efb286"] ;
74 -> 76 ;
77 [label="gini = 0.5\nsamples = 16\nvalue = [13, 12]\nclass = No_Churn", fillcolor="#fdf5f0"] ;
76 -> 77 ;
78 [label="gini = 0.26\nsamples = 21\nvalue = [33, 6]\nclass = No_Churn", fillcolor="#ea985d"] ;
76 -> 78 ;
79 [label="X[11] <= -1.16\ngini = 0.28\nsamples = 3\nvalue = [1, 5]\nclass = Churn", fillcolor="#61b1ea"] ;
73 -> 79 ;
80 [label="gini = 0.0\nsamples = 1\nvalue = [1, 0]\nclass = No_Churn", fillcolor="#e58139"] ;
79 -> 80 ;
81 [label="gini = 0.0\nsamples = 2\nvalue = [0, 5]\nclass = Churn", fillcolor="#399de5"] ;
79 -> 81 ;
82 [label="X[8] <= 1.67\ngini = 0.39\nsamples = 267\nvalue = [320, 116]\nclass = No_Churn", fillcolor="#eeaf81"] ;
60 -> 82 ;
83 [label="X[7] <= 1.09\ngini = 0.37\nsamples = 256\nvalue = [319, 103]\nclass = No_Churn", fillcolor="#edaa79"] ;
82 -> 83 ;
84 [label="X[7] <= 1.08\ngini = 0.43\nsamples = 198\nvalue = [227, 101]\nclass = No_Churn", fillcolor="#f1b991"] ;
83 -> 84 ;
85 [label="X[10] <= -0.03\ngini = 0.42\nsamples = 194\nvalue = [226, 97]\nclass = No_Churn", fillcolor="#f0b78e"] ;
84 -> 85 ;
86 [label="gini = 0.46\nsamples = 103\nvalue = [111, 61]\nclass = No_Churn", fillcolor="#f3c6a6"] ;
85 -> 86 ;
87 [label="gini = 0.36\nsamples = 91\nvalue = [115, 36]\nclass = No_Churn", fillcolor="#eda877"] ;
85 -> 87 ;
88 [label="X[3] <= -1.56\ngini = 0.32\nsamples = 4\nvalue = [1, 4]\nclass = Churn", fillcolor="#6ab6ec"] ;
84 -> 88 ;
89 [label="gini = 0.0\nsamples = 1\nvalue = [1, 0]\nclass = No_Churn", fillcolor="#e58139"] ;
88 -> 89 ;
90 [label="gini = 0.0\nsamples = 3\nvalue = [0, 4]\nclass = Churn", fillcolor="#399de5"] ;
88 -> 90 ;
91 [label="X[11] <= -0.98\ngini = 0.04\nsamples = 58\nvalue = [92, 2]\nclass = No_Churn", fillcolor="#e6843d"] ;
83 -> 91 ;
92 [label="X[5] <= -0.04\ngini = 0.26\nsamples = 9\nvalue = [11, 2]\nclass = No_Churn", fillcolor="#ea985d"] ;
91 -> 92 ;
93 [label="gini = 0.0\nsamples = 7\nvalue = [11, 0]\nclass = No_Churn", fillcolor="#e58139"] ;
92 -> 93 ;
94 [label="gini = 0.0\nsamples = 2\nvalue = [0, 2]\nclass = Churn", fillcolor="#399de5"] ;
92 -> 94 ;
95 [label="gini = 0.0\nsamples = 49\nvalue = [81, 0]\nclass = No_Churn", fillcolor="#e58139"] ;
91 -> 95 ;
96 [label="X[10] <= -0.03\ngini = 0.13\nsamples = 11\nvalue = [1, 13]\nclass = Churn", fillcolor="#48a5e7"] ;
82 -> 96 ;
97 [label="gini = 0.0\nsamples = 4\nvalue = [0, 6]\nclass = Churn", fillcolor="#399de5"] ;
96 -> 97 ;
98 [label="X[7] <= 1.26\ngini = 0.22\nsamples = 7\nvalue = [1, 7]\nclass = Churn", fillcolor="#55abe9"] ;
96 -> 98 ;
99 [label="gini = 0.0\nsamples = 4\nvalue = [0, 5]\nclass = Churn", fillcolor="#399de5"] ;
98 -> 99 ;
100 [label="X[6] <= -0.17\ngini = 0.44\nsamples = 3\nvalue = [1, 2]\nclass = Churn", fillcolor="#9ccef2"] ;
98 -> 100 ;
101 [label="gini = 0.0\nsamples = 1\nvalue = [1, 0]\nclass = No_Churn", fillcolor="#e58139"] ;
100 -> 101 ;
102 [label="gini = 0.0\nsamples = 2\nvalue = [0, 2]\nclass = Churn", fillcolor="#399de5"] ;
100 -> 102 ;
103 [label="X[7] <= 0.46\ngini = 0.21\nsamples = 868\nvalue = [1233, 162]\nclass = No_Churn", fillcolor="#e89253"] ;
59 -> 103 ;
104 [label="X[2] <= 0.58\ngini = 0.35\nsamples = 5\nvalue = [2, 7]\nclass = Churn", fillcolor="#72b9ec"] ;
103 -> 104 ;
105 [label="X[7] <= 0.46\ngini = 0.38\nsamples = 4\nvalue = [2, 6]\nclass = Churn", fillcolor="#7bbeee"] ;
104 -> 105 ;
106 [label="gini = 0.0\nsamples = 1\nvalue = [0, 5]\nclass = Churn", fillcolor="#399de5"] ;
105 -> 106 ;
107 [label="X[6] <= -0.0\ngini = 0.44\nsamples = 3\nvalue = [2, 1]\nclass = No_Churn", fillcolor="#f2c09c"] ;
105 -> 107 ;
108 [label="gini = 0.0\nsamples = 1\nvalue = [1, 0]\nclass = No_Churn", fillcolor="#e58139"] ;
107 -> 108 ;
109 [label="X[7] <= 0.46\ngini = 0.5\nsamples = 2\nvalue = [1, 1]\nclass = No_Churn", fillcolor="#ffffff"] ;
107 -> 109 ;
110 [label="gini = 0.0\nsamples = 1\nvalue = [1, 0]\nclass = No_Churn", fillcolor="#e58139"] ;
109 -> 110 ;
111 [label="gini = 0.0\nsamples = 1\nvalue = [0, 1]\nclass = Churn", fillcolor="#399de5"] ;
109 -> 111 ;
112 [label="gini = 0.0\nsamples = 1\nvalue = [0, 1]\nclass = Churn", fillcolor="#399de5"] ;
104 -> 112 ;
113 [label="X[8] <= 1.67\ngini = 0.2\nsamples = 863\nvalue = [1231, 155]\nclass = No_Churn", fillcolor="#e89152"] ;
103 -> 113 ;
114 [label="X[8] <= -0.05\ngini = 0.18\nsamples = 847\nvalue = [1228, 132]\nclass = No_Churn", fillcolor="#e88f4e"] ;
113 -> 114 ;
115 [label="X[1] <= 0.57\ngini = 0.21\nsamples = 554\nvalue = [783, 109]\nclass = No_Churn", fillcolor="#e99355"] ;
114 -> 115 ;
116 [label="X[7] <= 1.63\ngini = 0.14\nsamples = 394\nvalue = [587, 49]\nclass = No_Churn", fillcolor="#e78c4a"] ;
115 -> 116 ;
117 [label="gini = 0.12\nsamples = 379\nvalue = [566, 40]\nclass = No_Churn", fillcolor="#e78a47"] ;
116 -> 117 ;
118 [label="gini = 0.42\nsamples = 15\nvalue = [21, 9]\nclass = No_Churn", fillcolor="#f0b78e"] ;
116 -> 118 ;
119 [label="X[6] <= -1.22\ngini = 0.36\nsamples = 160\nvalue = [196, 60]\nclass = No_Churn", fillcolor="#eda876"] ;
115 -> 119 ;
120 [label="gini = 0.47\nsamples = 25\nvalue = [26, 16]\nclass = No_Churn", fillcolor="#f5cfb3"] ;
119 -> 120 ;
121 [label="gini = 0.33\nsamples = 135\nvalue = [170, 44]\nclass = No_Churn", fillcolor="#eca26c"] ;
119 -> 121 ;
122 [label="X[11] <= -0.97\ngini = 0.09\nsamples = 293\nvalue = [445, 23]\nclass = No_Churn", fillcolor="#e68843"] ;
114 -> 122 ;
123 [label="X[7] <= 0.52\ngini = 0.16\nsamples = 55\nvalue = [83, 8]\nclass = No_Churn", fillcolor="#e88d4c"] ;
122 -> 123 ;
124 [label="gini = 0.48\nsamples = 3\nvalue = [3, 2]\nclass = No_Churn", fillcolor="#f6d5bd"] ;
123 -> 124 ;
125 [label="gini = 0.13\nsamples = 52\nvalue = [80, 6]\nclass = No_Churn", fillcolor="#e78a48"] ;
123 -> 125 ;
126 [label="X[3] <= -2.8\ngini = 0.08\nsamples = 238\nvalue = [362, 15]\nclass = No_Churn", fillcolor="#e68641"] ;
122 -> 126 ;
127 [label="gini = 0.0\nsamples = 1\nvalue = [0, 1]\nclass = Churn", fillcolor="#399de5"] ;
126 -> 127 ;
128 [label="gini = 0.07\nsamples = 237\nvalue = [362, 14]\nclass = No_Churn", fillcolor="#e68641"] ;
126 -> 128 ;
129 [label="X[1] <= 0.57\ngini = 0.2\nsamples = 16\nvalue = [3, 23]\nclass = Churn", fillcolor="#53aae8"] ;
113 -> 129 ;
130 [label="gini = 0.0\nsamples = 7\nvalue = [0, 9]\nclass = Churn", fillcolor="#399de5"] ;
129 -> 130 ;
131 [label="X[5] <= -0.32\ngini = 0.29\nsamples = 9\nvalue = [3, 14]\nclass = Churn", fillcolor="#63b2eb"] ;
129 -> 131 ;
132 [label="X[3] <= -1.24\ngini = 0.48\nsamples = 3\nvalue = [3, 2]\nclass = No_Churn", fillcolor="#f6d5bd"] ;
131 -> 132 ;
133 [label="gini = 0.0\nsamples = 1\nvalue = [0, 2]\nclass = Churn", fillcolor="#399de5"] ;
132 -> 133 ;
134 [label="gini = 0.0\nsamples = 2\nvalue = [3, 0]\nclass = No_Churn", fillcolor="#e58139"] ;
132 -> 134 ;
135 [label="gini = 0.0\nsamples = 6\nvalue = [0, 12]\nclass = Churn", fillcolor="#399de5"] ;
131 -> 135 ;
136 [label="X[10] <= -0.03\ngini = 0.49\nsamples = 1480\nvalue = [1349, 985]\nclass = No_Churn", fillcolor="#f8ddca"] ;
0 -> 136 [labeldistance=2.5, labelangle=-45, headlabel="False"] ;
137 [label="X[8] <= -0.05\ngini = 0.48\nsamples = 673\nvalue = [405, 635]\nclass = Churn", fillcolor="#b7dcf6"] ;
136 -> 137 ;
138 [label="X[1] <= 0.57\ngini = 0.41\nsamples = 412\nvalue = [191, 471]\nclass = Churn", fillcolor="#89c5f0"] ;
137 -> 138 ;
139 [label="X[5] <= 0.82\ngini = 0.46\nsamples = 257\nvalue = [146, 262]\nclass = Churn", fillcolor="#a7d4f3"] ;
138 -> 139 ;
140 [label="X[5] <= 0.53\ngini = 0.49\nsamples = 113\nvalue = [103, 84]\nclass = No_Churn", fillcolor="#fae8da"] ;
139 -> 140 ;
141 [label="X[3] <= -1.16\ngini = 0.42\nsamples = 47\nvalue = [47, 20]\nclass = No_Churn", fillcolor="#f0b78d"] ;
140 -> 141 ;
142 [label="X[7] <= -0.38\ngini = 0.32\nsamples = 3\nvalue = [1, 4]\nclass = Churn", fillcolor="#6ab6ec"] ;
141 -> 142 ;
143 [label="gini = 0.0\nsamples = 1\nvalue = [1, 0]\nclass = No_Churn", fillcolor="#e58139"] ;
142 -> 143 ;
144 [label="gini = 0.0\nsamples = 2\nvalue = [0, 4]\nclass = Churn", fillcolor="#399de5"] ;
142 -> 144 ;
145 [label="X[3] <= 1.37\ngini = 0.38\nsamples = 44\nvalue = [46, 16]\nclass = No_Churn", fillcolor="#eead7e"] ;
141 -> 145 ;
146 [label="gini = 0.37\nsamples = 43\nvalue = [46, 15]\nclass = No_Churn", fillcolor="#edaa7a"] ;
145 -> 146 ;
147 [label="gini = 0.0\nsamples = 1\nvalue = [0, 1]\nclass = Churn", fillcolor="#399de5"] ;
145 -> 147 ;
148 [label="X[6] <= 0.17\ngini = 0.5\nsamples = 66\nvalue = [56, 64]\nclass = Churn", fillcolor="#e6f3fc"] ;
140 -> 148 ;
149 [label="X[0] <= 0.0\ngini = 0.43\nsamples = 35\nvalue = [21, 45]\nclass = Churn", fillcolor="#95cbf1"] ;
148 -> 149 ;
150 [label="gini = 0.33\nsamples = 12\nvalue = [4, 15]\nclass = Churn", fillcolor="#6eb7ec"] ;
149 -> 150 ;
151 [label="gini = 0.46\nsamples = 23\nvalue = [17, 30]\nclass = Churn", fillcolor="#a9d5f4"] ;
149 -> 151 ;
152 [label="X[9] <= -0.45\ngini = 0.46\nsamples = 31\nvalue = [35, 19]\nclass = No_Churn", fillcolor="#f3c5a4"] ;
148 -> 152 ;
153 [label="gini = 0.46\nsamples = 7\nvalue = [7, 4]\nclass = No_Churn", fillcolor="#f4c9aa"] ;
152 -> 153 ;
154 [label="gini = 0.45\nsamples = 24\nvalue = [28, 15]\nclass = No_Churn", fillcolor="#f3c4a3"] ;
152 -> 154 ;
155 [label="X[5] <= 1.58\ngini = 0.31\nsamples = 144\nvalue = [43, 178]\nclass = Churn", fillcolor="#69b5eb"] ;
139 -> 155 ;
156 [label="X[11] <= 0.69\ngini = 0.4\nsamples = 97\nvalue = [40, 106]\nclass = Churn", fillcolor="#84c2ef"] ;
155 -> 156 ;
157 [label="X[4] <= -0.09\ngini = 0.46\nsamples = 65\nvalue = [36, 66]\nclass = Churn", fillcolor="#a5d2f3"] ;
156 -> 157 ;
158 [label="gini = 0.4\nsamples = 37\nvalue = [17, 45]\nclass = Churn", fillcolor="#84c2ef"] ;
157 -> 158 ;
159 [label="gini = 0.5\nsamples = 28\nvalue = [19, 21]\nclass = Churn", fillcolor="#ecf6fd"] ;
157 -> 159 ;
160 [label="X[7] <= 0.63\ngini = 0.17\nsamples = 32\nvalue = [4, 40]\nclass = Churn", fillcolor="#4da7e8"] ;
156 -> 160 ;
161 [label="gini = 0.0\nsamples = 19\nvalue = [0, 24]\nclass = Churn", fillcolor="#399de5"] ;
160 -> 161 ;
162 [label="gini = 0.32\nsamples = 13\nvalue = [4, 16]\nclass = Churn", fillcolor="#6ab6ec"] ;
160 -> 162 ;
163 [label="X[4] <= -0.09\ngini = 0.08\nsamples = 47\nvalue = [3, 72]\nclass = Churn", fillcolor="#41a1e6"] ;
155 -> 163 ;
164 [label="X[3] <= -1.9\ngini = 0.13\nsamples = 26\nvalue = [3, 39]\nclass = Churn", fillcolor="#48a5e7"] ;
163 -> 164 ;
165 [label="gini = 0.44\nsamples = 2\nvalue = [2, 1]\nclass = No_Churn", fillcolor="#f2c09c"] ;
164 -> 165 ;
166 [label="gini = 0.05\nsamples = 24\nvalue = [1, 38]\nclass = Churn", fillcolor="#3ea0e6"] ;
164 -> 166 ;
167 [label="gini = 0.0\nsamples = 21\nvalue = [0, 33]\nclass = Churn", fillcolor="#399de5"] ;
163 -> 167 ;
168 [label="X[3] <= -1.73\ngini = 0.29\nsamples = 155\nvalue = [45, 209]\nclass = Churn", fillcolor="#64b2eb"] ;
138 -> 168 ;
169 [label="X[6] <= 1.56\ngini = 0.5\nsamples = 10\nvalue = [11, 13]\nclass = Churn", fillcolor="#e1f0fb"] ;
168 -> 169 ;
170 [label="X[11] <= -0.18\ngini = 0.5\nsamples = 8\nvalue = [11, 10]\nclass = No_Churn", fillcolor="#fdf4ed"] ;
169 -> 170 ;
171 [label="gini = 0.0\nsamples = 5\nvalue = [0, 10]\nclass = Churn", fillcolor="#399de5"] ;
170 -> 171 ;
172 [label="gini = 0.0\nsamples = 3\nvalue = [11, 0]\nclass = No_Churn", fillcolor="#e58139"] ;
170 -> 172 ;
173 [label="gini = 0.0\nsamples = 2\nvalue = [0, 3]\nclass = Churn", fillcolor="#399de5"] ;
169 -> 173 ;
174 [label="X[6] <= 1.56\ngini = 0.25\nsamples = 145\nvalue = [34, 196]\nclass = Churn", fillcolor="#5baeea"] ;
168 -> 174 ;
175 [label="X[3] <= 1.08\ngini = 0.21\nsamples = 137\nvalue = [26, 188]\nclass = Churn", fillcolor="#54abe9"] ;
174 -> 175 ;
176 [label="X[5] <= 0.63\ngini = 0.18\nsamples = 114\nvalue = [18, 163]\nclass = Churn", fillcolor="#4fa8e8"] ;
175 -> 176 ;
177 [label="gini = 0.33\nsamples = 27\nvalue = [9, 35]\nclass = Churn", fillcolor="#6cb6ec"] ;
176 -> 177 ;
178 [label="gini = 0.12\nsamples = 87\nvalue = [9, 128]\nclass = Churn", fillcolor="#47a4e7"] ;
176 -> 178 ;
179 [label="X[7] <= 0.58\ngini = 0.37\nsamples = 23\nvalue = [8, 25]\nclass = Churn", fillcolor="#78bced"] ;
175 -> 179 ;
180 [label="gini = 0.5\nsamples = 12\nvalue = [8, 9]\nclass = Churn", fillcolor="#e9f4fc"] ;
179 -> 180 ;
181 [label="gini = 0.0\nsamples = 11\nvalue = [0, 16]\nclass = Churn", fillcolor="#399de5"] ;
179 -> 181 ;
182 [label="X[4] <= -0.09\ngini = 0.5\nsamples = 8\nvalue = [8, 8]\nclass = No_Churn", fillcolor="#ffffff"] ;
174 -> 182 ;
183 [label="X[5] <= 0.44\ngini = 0.44\nsamples = 5\nvalue = [3, 6]\nclass = Churn", fillcolor="#9ccef2"] ;
182 -> 183 ;
184 [label="gini = 0.0\nsamples = 1\nvalue = [2, 0]\nclass = No_Churn", fillcolor="#e58139"] ;
183 -> 184 ;
185 [label="gini = 0.24\nsamples = 4\nvalue = [1, 6]\nclass = Churn", fillcolor="#5aade9"] ;
183 -> 185 ;
186 [label="X[7] <= 0.38\ngini = 0.41\nsamples = 3\nvalue = [5, 2]\nclass = No_Churn", fillcolor="#efb388"] ;
182 -> 186 ;
187 [label="gini = 0.0\nsamples = 1\nvalue = [3, 0]\nclass = No_Churn", fillcolor="#e58139"] ;
186 -> 187 ;
188 [label="gini = 0.5\nsamples = 2\nvalue = [2, 2]\nclass = No_Churn", fillcolor="#ffffff"] ;
186 -> 188 ;
189 [label="X[8] <= 1.67\ngini = 0.49\nsamples = 261\nvalue = [214, 164]\nclass = No_Churn", fillcolor="#f9e2d1"] ;
137 -> 189 ;
190 [label="X[3] <= -0.55\ngini = 0.42\nsamples = 211\nvalue = [214, 91]\nclass = No_Churn", fillcolor="#f0b78d"] ;
189 -> 190 ;
191 [label="X[5] <= 1.25\ngini = 0.48\nsamples = 70\nvalue = [58, 39]\nclass = No_Churn", fillcolor="#f6d6be"] ;
190 -> 191 ;
192 [label="X[7] <= 1.06\ngini = 0.42\nsamples = 55\nvalue = [55, 24]\nclass = No_Churn", fillcolor="#f0b88f"] ;
191 -> 192 ;
193 [label="X[3] <= -1.89\ngini = 0.36\nsamples = 49\nvalue = [54, 17]\nclass = No_Churn", fillcolor="#eda977"] ;
192 -> 193 ;
194 [label="gini = 0.5\nsamples = 7\nvalue = [4, 4]\nclass = No_Churn", fillcolor="#ffffff"] ;
193 -> 194 ;
195 [label="gini = 0.33\nsamples = 42\nvalue = [50, 13]\nclass = No_Churn", fillcolor="#eca26c"] ;
193 -> 195 ;
196 [label="X[7] <= 1.33\ngini = 0.22\nsamples = 6\nvalue = [1, 7]\nclass = Churn", fillcolor="#55abe9"] ;
192 -> 196 ;
197 [label="gini = 0.0\nsamples = 4\nvalue = [0, 6]\nclass = Churn", fillcolor="#399de5"] ;
196 -> 197 ;
198 [label="gini = 0.5\nsamples = 2\nvalue = [1, 1]\nclass = No_Churn", fillcolor="#ffffff"] ;
196 -> 198 ;
199 [label="X[9] <= -0.45\ngini = 0.28\nsamples = 15\nvalue = [3, 15]\nclass = Churn", fillcolor="#61b1ea"] ;
191 -> 199 ;
200 [label="X[3] <= -1.24\ngini = 0.38\nsamples = 4\nvalue = [1, 3]\nclass = Churn", fillcolor="#7bbeee"] ;
199 -> 200 ;
201 [label="gini = 0.5\nsamples = 2\nvalue = [1, 1]\nclass = No_Churn", fillcolor="#ffffff"] ;
200 -> 201 ;
202 [label="gini = 0.0\nsamples = 2\nvalue = [0, 2]\nclass = Churn", fillcolor="#399de5"] ;
200 -> 202 ;
203 [label="X[11] <= 0.14\ngini = 0.24\nsamples = 11\nvalue = [2, 12]\nclass = Churn", fillcolor="#5aade9"] ;
199 -> 203 ;
204 [label="gini = 0.38\nsamples = 7\nvalue = [2, 6]\nclass = Churn", fillcolor="#7bbeee"] ;
203 -> 204 ;
205 [label="gini = 0.0\nsamples = 4\nvalue = [0, 6]\nclass = Churn", fillcolor="#399de5"] ;
203 -> 205 ;
206 [label="X[5] <= 1.1\ngini = 0.38\nsamples = 141\nvalue = [156, 52]\nclass = No_Churn", fillcolor="#eeab7b"] ;
190 -> 206 ;
207 [label="X[5] <= 0.91\ngini = 0.25\nsamples = 111\nvalue = [142, 25]\nclass = No_Churn", fillcolor="#ea975c"] ;
206 -> 207 ;
208 [label="X[7] <= 1.41\ngini = 0.21\nsamples = 91\nvalue = [122, 17]\nclass = No_Churn", fillcolor="#e99355"] ;
207 -> 208 ;
209 [label="gini = 0.19\nsamples = 88\nvalue = [121, 14]\nclass = No_Churn", fillcolor="#e89050"] ;
208 -> 209 ;
210 [label="gini = 0.38\nsamples = 3\nvalue = [1, 3]\nclass = Churn", fillcolor="#7bbeee"] ;
208 -> 210 ;
211 [label="X[7] <= -0.69\ngini = 0.41\nsamples = 20\nvalue = [20, 8]\nclass = No_Churn", fillcolor="#efb388"] ;
207 -> 211 ;
212 [label="gini = 0.14\nsamples = 11\nvalue = [12, 1]\nclass = No_Churn", fillcolor="#e78c49"] ;
211 -> 212 ;
213 [label="gini = 0.5\nsamples = 9\nvalue = [8, 7]\nclass = No_Churn", fillcolor="#fcefe6"] ;
211 -> 213 ;
214 [label="X[4] <= -0.09\ngini = 0.45\nsamples = 30\nvalue = [14, 27]\nclass = Churn", fillcolor="#a0d0f2"] ;
206 -> 214 ;
215 [label="X[11] <= 1.49\ngini = 0.26\nsamples = 17\nvalue = [3, 17]\nclass = Churn", fillcolor="#5caeea"] ;
214 -> 215 ;
216 [label="gini = 0.19\nsamples = 16\nvalue = [2, 17]\nclass = Churn", fillcolor="#50a9e8"] ;
215 -> 216 ;
217 [label="gini = 0.0\nsamples = 1\nvalue = [1, 0]\nclass = No_Churn", fillcolor="#e58139"] ;
215 -> 217 ;
218 [label="X[7] <= 0.4\ngini = 0.5\nsamples = 13\nvalue = [11, 10]\nclass = No_Churn", fillcolor="#fdf4ed"] ;
214 -> 218 ;
219 [label="gini = 0.32\nsamples = 7\nvalue = [8, 2]\nclass = No_Churn", fillcolor="#eca06a"] ;
218 -> 219 ;
220 [label="gini = 0.4\nsamples = 6\nvalue = [3, 8]\nclass = Churn", fillcolor="#83c2ef"] ;
218 -> 220 ;
221 [label="gini = 0.0\nsamples = 50\nvalue = [0, 73]\nclass = Churn", fillcolor="#399de5"] ;
189 -> 221 ;
222 [label="X[2] <= 0.58\ngini = 0.39\nsamples = 807\nvalue = [944, 350]\nclass = No_Churn", fillcolor="#efb082"] ;
136 -> 222 ;
223 [label="X[1] <= 0.57\ngini = 0.43\nsamples = 591\nvalue = [665, 295]\nclass = No_Churn", fillcolor="#f1b991"] ;
222 -> 223 ;
224 [label="X[7] <= 1.83\ngini = 0.37\nsamples = 385\nvalue = [476, 151]\nclass = No_Churn", fillcolor="#eda978"] ;
223 -> 224 ;
225 [label="X[8] <= 1.67\ngini = 0.36\nsamples = 382\nvalue = [476, 145]\nclass = No_Churn", fillcolor="#eda775"] ;
224 -> 225 ;
226 [label="X[8] <= -0.05\ngini = 0.33\nsamples = 366\nvalue = [474, 126]\nclass = No_Churn", fillcolor="#eca26e"] ;
225 -> 226 ;
227 [label="X[3] <= 0.78\ngini = 0.4\nsamples = 198\nvalue = [233, 89]\nclass = No_Churn", fillcolor="#efb185"] ;
226 -> 227 ;
228 [label="gini = 0.36\nsamples = 144\nvalue = [176, 55]\nclass = No_Churn", fillcolor="#eda877"] ;
227 -> 228 ;
229 [label="gini = 0.47\nsamples = 54\nvalue = [57, 34]\nclass = No_Churn", fillcolor="#f5ccaf"] ;
227 -> 229 ;
230 [label="X[11] <= 0.32\ngini = 0.23\nsamples = 168\nvalue = [241, 37]\nclass = No_Churn", fillcolor="#e99457"] ;
226 -> 230 ;
231 [label="gini = 0.15\nsamples = 100\nvalue = [158, 14]\nclass = No_Churn", fillcolor="#e78c4b"] ;
230 -> 231 ;
232 [label="gini = 0.34\nsamples = 68\nvalue = [83, 23]\nclass = No_Churn", fillcolor="#eca470"] ;
230 -> 232 ;
233 [label="X[5] <= 2.34\ngini = 0.17\nsamples = 16\nvalue = [2, 19]\nclass = Churn", fillcolor="#4ea7e8"] ;
225 -> 233 ;
234 [label="X[11] <= -0.58\ngini = 0.09\nsamples = 15\nvalue = [1, 19]\nclass = Churn", fillcolor="#43a2e6"] ;
233 -> 234 ;
235 [label="gini = 0.38\nsamples = 3\nvalue = [1, 3]\nclass = Churn", fillcolor="#7bbeee"] ;
234 -> 235 ;
236 [label="gini = 0.0\nsamples = 12\nvalue = [0, 16]\nclass = Churn", fillcolor="#399de5"] ;
234 -> 236 ;
237 [label="gini = 0.0\nsamples = 1\nvalue = [1, 0]\nclass = No_Churn", fillcolor="#e58139"] ;
233 -> 237 ;
238 [label="gini = 0.0\nsamples = 3\nvalue = [0, 6]\nclass = Churn", fillcolor="#399de5"] ;
224 -> 238 ;
239 [label="X[8] <= -0.05\ngini = 0.49\nsamples = 206\nvalue = [189, 144]\nclass = No_Churn", fillcolor="#f9e1d0"] ;
223 -> 239 ;
240 [label="X[11] <= -1.16\ngini = 0.48\nsamples = 111\nvalue = [70, 100]\nclass = Churn", fillcolor="#c4e2f7"] ;
239 -> 240 ;
241 [label="X[3] <= -0.35\ngini = 0.25\nsamples = 16\nvalue = [4, 23]\nclass = Churn", fillcolor="#5baeea"] ;
240 -> 241 ;
242 [label="X[6] <= -0.87\ngini = 0.49\nsamples = 4\nvalue = [3, 4]\nclass = Churn", fillcolor="#cee6f8"] ;
241 -> 242 ;
243 [label="gini = 0.0\nsamples = 1\nvalue = [0, 2]\nclass = Churn", fillcolor="#399de5"] ;
242 -> 243 ;
244 [label="gini = 0.48\nsamples = 3\nvalue = [3, 2]\nclass = No_Churn", fillcolor="#f6d5bd"] ;
242 -> 244 ;
245 [label="X[6] <= 0.52\ngini = 0.09\nsamples = 12\nvalue = [1, 19]\nclass = Churn", fillcolor="#43a2e6"] ;
241 -> 245 ;
246 [label="gini = 0.0\nsamples = 6\nvalue = [0, 13]\nclass = Churn", fillcolor="#399de5"] ;
245 -> 246 ;
247 [label="gini = 0.24\nsamples = 6\nvalue = [1, 6]\nclass = Churn", fillcolor="#5aade9"] ;
245 -> 247 ;
248 [label="X[7] <= 0.18\ngini = 0.5\nsamples = 95\nvalue = [66, 77]\nclass = Churn", fillcolor="#e3f1fb"] ;
240 -> 248 ;
249 [label="X[3] <= 0.09\ngini = 0.3\nsamples = 9\nvalue = [13, 3]\nclass = No_Churn", fillcolor="#eb9e67"] ;
248 -> 249 ;
250 [label="gini = 0.44\nsamples = 5\nvalue = [6, 3]\nclass = No_Churn", fillcolor="#f2c09c"] ;
249 -> 250 ;
251 [label="gini = 0.0\nsamples = 4\nvalue = [7, 0]\nclass = No_Churn", fillcolor="#e58139"] ;
249 -> 251 ;
252 [label="X[3] <= 0.57\ngini = 0.49\nsamples = 86\nvalue = [53, 74]\nclass = Churn", fillcolor="#c7e3f8"] ;
248 -> 252 ;
253 [label="gini = 0.5\nsamples = 62\nvalue = [44, 46]\nclass = Churn", fillcolor="#f6fbfe"] ;
252 -> 253 ;
254 [label="gini = 0.37\nsamples = 24\nvalue = [9, 28]\nclass = Churn", fillcolor="#79bced"] ;
252 -> 254 ;
255 [label="X[3] <= -1.68\ngini = 0.39\nsamples = 95\nvalue = [119, 44]\nclass = No_Churn", fillcolor="#efb082"] ;
239 -> 255 ;
256 [label="gini = 0.0\nsamples = 3\nvalue = [0, 7]\nclass = Churn", fillcolor="#399de5"] ;
255 -> 256 ;
257 [label="X[3] <= -0.18\ngini = 0.36\nsamples = 92\nvalue = [119, 37]\nclass = No_Churn", fillcolor="#eda877"] ;
255 -> 257 ;
258 [label="X[11] <= 0.7\ngini = 0.47\nsamples = 33\nvalue = [33, 20]\nclass = No_Churn", fillcolor="#f5cdb1"] ;
257 -> 258 ;
259 [label="gini = 0.5\nsamples = 23\nvalue = [17, 20]\nclass = Churn", fillcolor="#e1f0fb"] ;
258 -> 259 ;
260 [label="gini = 0.0\nsamples = 10\nvalue = [16, 0]\nclass = No_Churn", fillcolor="#e58139"] ;
258 -> 260 ;
261 [label="X[3] <= 0.31\ngini = 0.28\nsamples = 59\nvalue = [86, 17]\nclass = No_Churn", fillcolor="#ea9a60"] ;
257 -> 261 ;
262 [label="gini = 0.06\nsamples = 19\nvalue = [33, 1]\nclass = No_Churn", fillcolor="#e6853f"] ;
261 -> 262 ;
263 [label="gini = 0.36\nsamples = 40\nvalue = [53, 16]\nclass = No_Churn", fillcolor="#eda775"] ;
261 -> 263 ;
264 [label="X[8] <= 1.67\ngini = 0.28\nsamples = 216\nvalue = [279, 55]\nclass = No_Churn", fillcolor="#ea9a60"] ;
222 -> 264 ;
265 [label="X[5] <= 1.67\ngini = 0.26\nsamples = 213\nvalue = [279, 50]\nclass = No_Churn", fillcolor="#ea985c"] ;
264 -> 265 ;
266 [label="X[8] <= -0.05\ngini = 0.32\nsamples = 132\nvalue = [167, 42]\nclass = No_Churn", fillcolor="#eca16b"] ;
265 -> 266 ;
267 [label="X[7] <= 0.57\ngini = 0.42\nsamples = 79\nvalue = [81, 34]\nclass = No_Churn", fillcolor="#f0b68c"] ;
266 -> 267 ;
268 [label="X[6] <= 1.21\ngini = 0.48\nsamples = 53\nvalue = [46, 31]\nclass = No_Churn", fillcolor="#f7d6be"] ;
267 -> 268 ;
269 [label="gini = 0.49\nsamples = 48\nvalue = [38, 31]\nclass = No_Churn", fillcolor="#fae8db"] ;
268 -> 269 ;
270 [label="gini = 0.0\nsamples = 5\nvalue = [8, 0]\nclass = No_Churn", fillcolor="#e58139"] ;
268 -> 270 ;
271 [label="X[11] <= 1.06\ngini = 0.15\nsamples = 26\nvalue = [35, 3]\nclass = No_Churn", fillcolor="#e78c4a"] ;
267 -> 271 ;
272 [label="gini = 0.11\nsamples = 23\nvalue = [32, 2]\nclass = No_Churn", fillcolor="#e78945"] ;
271 -> 272 ;
273 [label="gini = 0.38\nsamples = 3\nvalue = [3, 1]\nclass = No_Churn", fillcolor="#eeab7b"] ;
271 -> 273 ;
274 [label="X[6] <= -1.56\ngini = 0.16\nsamples = 53\nvalue = [86, 8]\nclass = No_Churn", fillcolor="#e78d4b"] ;
266 -> 274 ;
275 [label="gini = 0.0\nsamples = 1\nvalue = [0, 1]\nclass = Churn", fillcolor="#399de5"] ;
274 -> 275 ;
276 [label="X[7] <= 1.47\ngini = 0.14\nsamples = 52\nvalue = [86, 7]\nclass = No_Churn", fillcolor="#e78b49"] ;
274 -> 276 ;
277 [label="gini = 0.1\nsamples = 51\nvalue = [86, 5]\nclass = No_Churn", fillcolor="#e78845"] ;
276 -> 277 ;
278 [label="gini = 0.0\nsamples = 1\nvalue = [0, 2]\nclass = Churn", fillcolor="#399de5"] ;
276 -> 278 ;
279 [label="X[3] <= 0.8\ngini = 0.12\nsamples = 81\nvalue = [112, 8]\nclass = No_Churn", fillcolor="#e78a47"] ;
265 -> 279 ;
280 [label="X[5] <= 3.1\ngini = 0.15\nsamples = 67\nvalue = [91, 8]\nclass = No_Churn", fillcolor="#e78c4a"] ;
279 -> 280 ;
281 [label="X[11] <= 1.69\ngini = 0.19\nsamples = 56\nvalue = [66, 8]\nclass = No_Churn", fillcolor="#e89051"] ;
280 -> 281 ;
282 [label="gini = 0.15\nsamples = 55\nvalue = [66, 6]\nclass = No_Churn", fillcolor="#e78c4b"] ;
281 -> 282 ;
283 [label="gini = 0.0\nsamples = 1\nvalue = [0, 2]\nclass = Churn", fillcolor="#399de5"] ;
281 -> 283 ;
284 [label="gini = 0.0\nsamples = 11\nvalue = [25, 0]\nclass = No_Churn", fillcolor="#e58139"] ;
280 -> 284 ;
285 [label="gini = 0.0\nsamples = 14\nvalue = [21, 0]\nclass = No_Churn", fillcolor="#e58139"] ;
279 -> 285 ;
286 [label="gini = 0.0\nsamples = 3\nvalue = [0, 5]\nclass = Churn", fillcolor="#399de5"] ;
264 -> 286 ;
}